<?xml version="1.0"?>
<opencv_storage>
<cascade>
  <stageType>BOOST</stageType>
  <featureType>HAAR</featureType>
  <height>50</height>
  <width>50</width>
  <stageParams>
    <boostType>GAB</boostType>
    <minHitRate>9.9989998340606689e-01</minHitRate>
    <maxFalseAlarm>5.0000000000000000e-01</maxFalseAlarm>
    <weightTrimRate>9.4999999999999996e-01</weightTrimRate>
    <maxDepth>1</maxDepth>
    <maxWeakCount>100</maxWeakCount></stageParams>
  <featureParams>
    <maxCatCount>0</maxCatCount>
    <featSize>1</featSize>
    <mode>ALL</mode></featureParams>
  <stageNum>20</stageNum>
  <stages>
    <!-- stage 0 -->
    <_>
      <maxWeakCount>2</maxWeakCount>
      <stageThreshold>-2.8168332576751709e-01</stageThreshold>
      <weakClassifiers>
        <_>
          <internalNodes>
            0 -1 22 2.6920543983578682e-02</internalNodes>
          <leafValues>
            -6.9491523504257202e-01 1.</leafValues></_>
        <_>
          <internalNodes>
            0 -1 37 9.8039618023904040e-06</internalNodes>
          <leafValues>
            4.1323193907737732e-01 -1.</leafValues></_></weakClassifiers></_>
    <!-- stage 1 -->
    <_>
      <maxWeakCount>2</maxWeakCount>
      <stageThreshold>-4.2495331168174744e-01</stageThreshold>
      <weakClassifiers>
        <_>
          <internalNodes>
            0 -1 2 -9.5700174570083618e-03</internalNodes>
          <leafValues>
            5.4545456171035767e-01 -7.4311923980712891e-01</leafValues></_>
        <_>
          <internalNodes>
            0 -1 26 -4.5401515671983361e-04</internalNodes>
          <leafValues>
            -9.7040784358978271e-01 4.3554136157035828e-01</leafValues></_></weakClassifiers></_>
    <!-- stage 2 -->
    <_>
      <maxWeakCount>2</maxWeakCount>
      <stageThreshold>-3.8422605395317078e-01</stageThreshold>
      <weakClassifiers>
        <_>
          <internalNodes>
            0 -1 41 -1.0927589610219002e-02</internalNodes>
          <leafValues>
            1. -6.9491523504257202e-01</leafValues></_>
        <_>
          <internalNodes>
            0 -1 8 -5.1655333663802594e-06</internalNodes>
          <leafValues>
            -1. 3.1068918108940125e-01</leafValues></_></weakClassifiers></_>
    <!-- stage 3 -->
    <_>
      <maxWeakCount>2</maxWeakCount>
      <stageThreshold>-3.3407476544380188e-01</stageThreshold>
      <weakClassifiers>
        <_>
          <internalNodes>
            0 -1 39 -7.8867394477128983e-03</internalNodes>
          <leafValues>
            1. -6.6666668653488159e-01</leafValues></_>
        <_>
          <internalNodes>
            0 -1 13 5.3478665904549416e-06</internalNodes>
          <leafValues>
            3.3259192109107971e-01 -1.</leafValues></_></weakClassifiers></_>
    <!-- stage 4 -->
    <_>
      <maxWeakCount>2</maxWeakCount>
      <stageThreshold>-5.9541875123977661e-01</stageThreshold>
      <weakClassifiers>
        <_>
          <internalNodes>
            0 -1 8 4.4625694499700330e-06</internalNodes>
          <leafValues>
            5.4838711023330688e-01 -8.6000001430511475e-01</leafValues></_>
        <_>
          <internalNodes>
            0 -1 23 1.8059348803944886e-05</internalNodes>
          <leafValues>
            2.6458123326301575e-01 -9.6668845415115356e-01</leafValues></_></weakClassifiers></_>
    <!-- stage 5 -->
    <_>
      <maxWeakCount>2</maxWeakCount>
      <stageThreshold>-5.8451622724533081e-01</stageThreshold>
      <weakClassifiers>
        <_>
          <internalNodes>
            0 -1 8 4.3253021431155503e-06</internalNodes>
          <leafValues>
            1.4285714924335480e-01 -8.4269660711288452e-01</leafValues></_>
        <_>
          <internalNodes>
            0 -1 28 -6.7615578882396221e-04</internalNodes>
          <leafValues>
            -1. 2.5818040966987610e-01</leafValues></_></weakClassifiers></_>
    <!-- stage 6 -->
    <_>
      <maxWeakCount>2</maxWeakCount>
      <stageThreshold>-4.7588673233985901e-01</stageThreshold>
      <weakClassifiers>
        <_>
          <internalNodes>
            0 -1 13 -1.5736779459984973e-05</internalNodes>
          <leafValues>
            -7.8846156597137451e-01 4.8148149251937866e-01</leafValues></_>
        <_>
          <internalNodes>
            0 -1 20 -9.5989403780549765e-04</internalNodes>
          <leafValues>
            -1. 3.1257480382919312e-01</leafValues></_></weakClassifiers></_>
    <!-- stage 7 -->
    <_>
      <maxWeakCount>2</maxWeakCount>
      <stageThreshold>-6.0698229074478149e-01</stageThreshold>
      <weakClassifiers>
        <_>
          <internalNodes>
            0 -1 24 -8.0013042315840721e-04</internalNodes>
          <leafValues>
            -8.7804877758026123e-01 6.1224490404129028e-02</leafValues></_>
        <_>
          <internalNodes>
            0 -1 18 -5.0165408538305201e-06</internalNodes>
          <leafValues>
            -1. 2.7106648683547974e-01</leafValues></_></weakClassifiers></_>
    <!-- stage 8 -->
    <_>
      <maxWeakCount>2</maxWeakCount>
      <stageThreshold>-5.2161741256713867e-01</stageThreshold>
      <weakClassifiers>
        <_>
          <internalNodes>
            0 -1 17 1.1079452633566689e-05</internalNodes>
          <leafValues>
            5.3333336114883423e-01 -8.4158414602279663e-01</leafValues></_>
        <_>
          <internalNodes>
            0 -1 30 4.7169029712677002e-03</internalNodes>
          <leafValues>
            3.1996676325798035e-01 -9.3705856800079346e-01</leafValues></_></weakClassifiers></_>
    <!-- stage 9 -->
    <_>
      <maxWeakCount>3</maxWeakCount>
      <stageThreshold>-1.2899521589279175e+00</stageThreshold>
      <weakClassifiers>
        <_>
          <internalNodes>
            0 -1 4 -1.5889122150838375e-03</internalNodes>
          <leafValues>
            -8.4444445371627808e-01 1.7073170840740204e-01</leafValues></_>
        <_>
          <internalNodes>
            0 -1 25 5.2670198783744127e-05</internalNodes>
          <leafValues>
            3.7489154934883118e-01 -8.5541099309921265e-01</leafValues></_>
        <_>
          <internalNodes>
            0 -1 19 1.7320819097221829e-05</internalNodes>
          <leafValues>
            4.0990325808525085e-01 -9.1803616285324097e-01</leafValues></_></weakClassifiers></_>
    <!-- stage 10 -->
    <_>
      <maxWeakCount>3</maxWeakCount>
      <stageThreshold>-1.0196944475173950e+00</stageThreshold>
      <weakClassifiers>
        <_>
          <internalNodes>
            0 -1 29 4.0696177165955305e-04</internalNodes>
          <leafValues>
            1.0204081982374191e-01 -9.0243899822235107e-01</leafValues></_>
        <_>
          <internalNodes>
            0 -1 34 1.8001101911067963e-02</internalNodes>
          <leafValues>
            -6.3988631963729858e-01 7.2344690561294556e-01</leafValues></_>
        <_>
          <internalNodes>
            0 -1 16 5.0832482520490885e-04</internalNodes>
          <leafValues>
            5.2263087034225464e-01 -9.0106225013732910e-01</leafValues></_></weakClassifiers></_>
    <!-- stage 11 -->
    <_>
      <maxWeakCount>2</maxWeakCount>
      <stageThreshold>-8.3134156465530396e-01</stageThreshold>
      <weakClassifiers>
        <_>
          <internalNodes>
            0 -1 32 -2.2354666143655777e-03</internalNodes>
          <leafValues>
            -9.2207789421081543e-01 3.7037037312984467e-02</leafValues></_>
        <_>
          <internalNodes>
            0 -1 3 -2.9529884341172874e-04</internalNodes>
          <leafValues>
            -8.6837857961654663e-01 3.4592613577842712e-01</leafValues></_></weakClassifiers></_>
    <!-- stage 12 -->
    <_>
      <maxWeakCount>2</maxWeakCount>
      <stageThreshold>-2.1658529341220856e-01</stageThreshold>
      <weakClassifiers>
        <_>
          <internalNodes>
            0 -1 33 7.1975281462073326e-03</internalNodes>
          <leafValues>
            -6.8965518474578857e-01 7.3333334922790527e-01</leafValues></_>
        <_>
          <internalNodes>
            0 -1 15 -3.5693570680450648e-05</internalNodes>
          <leafValues>
            -9.2835831642150879e-01 4.7306987643241882e-01</leafValues></_></weakClassifiers></_>
    <!-- stage 13 -->
    <_>
      <maxWeakCount>3</maxWeakCount>
      <stageThreshold>-4.9282589554786682e-01</stageThreshold>
      <weakClassifiers>
        <_>
          <internalNodes>
            0 -1 9 6.7694609242607839e-06</internalNodes>
          <leafValues>
            2.7426576107514522e-17 -9.4520545005798340e-01</leafValues></_>
        <_>
          <internalNodes>
            0 -1 14 2.2797172277932987e-05</internalNodes>
          <leafValues>
            3.2793432474136353e-01 -9.0548467636108398e-01</leafValues></_>
        <_>
          <internalNodes>
            0 -1 1 3.0452829378191382e-06</internalNodes>
          <leafValues>
            4.4803091883659363e-01 -8.2076019048690796e-01</leafValues></_></weakClassifiers></_>
    <!-- stage 14 -->
    <_>
      <maxWeakCount>4</maxWeakCount>
      <stageThreshold>-5.4298448562622070e-01</stageThreshold>
      <weakClassifiers>
        <_>
          <internalNodes>
            0 -1 35 4.2948392219841480e-03</internalNodes>
          <leafValues>
            -6.9230771064758301e-01 8.5714286565780640e-01</leafValues></_>
        <_>
          <internalNodes>
            0 -1 6 -1.9173226974089630e-05</internalNodes>
          <leafValues>
            -7.8089809417724609e-01 5.2070415019989014e-01</leafValues></_>
        <_>
          <internalNodes>
            0 -1 38 -3.1348878110293299e-05</internalNodes>
          <leafValues>
            -8.9686506986618042e-01 4.6364340186119080e-01</leafValues></_>
        <_>
          <internalNodes>
            0 -1 7 -6.2216873629949987e-05</internalNodes>
          <leafValues>
            -8.0754715204238892e-01 5.2548414468765259e-01</leafValues></_></weakClassifiers></_>
    <!-- stage 15 -->
    <_>
      <maxWeakCount>2</maxWeakCount>
      <stageThreshold>-7.5903183221817017e-01</stageThreshold>
      <weakClassifiers>
        <_>
          <internalNodes>
            0 -1 21 1.7020598534145392e-05</internalNodes>
          <leafValues>
            2.0000000298023224e-01 -9.7530865669250488e-01</leafValues></_>
        <_>
          <internalNodes>
            0 -1 31 -1.9184913253411651e-04</internalNodes>
          <leafValues>
            -9.5903182029724121e-01 2.6175248622894287e-01</leafValues></_></weakClassifiers></_>
    <!-- stage 16 -->
    <_>
      <maxWeakCount>2</maxWeakCount>
      <stageThreshold>-2.6772618293762207e-01</stageThreshold>
      <weakClassifiers>
        <_>
          <internalNodes>
            0 -1 36 -1.1227071285247803e-02</internalNodes>
          <leafValues>
            1. -6.9491523504257202e-01</leafValues></_>
        <_>
          <internalNodes>
            0 -1 12 -1.2717459867417347e-05</internalNodes>
          <leafValues>
            -1. 4.2718908190727234e-01</leafValues></_></weakClassifiers></_>
    <!-- stage 17 -->
    <_>
      <maxWeakCount>2</maxWeakCount>
      <stageThreshold>-2.0713835954666138e-01</stageThreshold>
      <weakClassifiers>
        <_>
          <internalNodes>
            0 -1 40 4.5516798272728920e-03</internalNodes>
          <leafValues>
            -7.0940172672271729e-01 1.</leafValues></_>
        <_>
          <internalNodes>
            0 -1 11 3.5093369660899043e-05</internalNodes>
          <leafValues>
            5.0226336717605591e-01 -9.4115042686462402e-01</leafValues></_></weakClassifiers></_>
    <!-- stage 18 -->
    <_>
      <maxWeakCount>2</maxWeakCount>
      <stageThreshold>-5.3763216733932495e-01</stageThreshold>
      <weakClassifiers>
        <_>
          <internalNodes>
            0 -1 27 -6.0572652728296816e-05</internalNodes>
          <leafValues>
            -8.6956518888473511e-01 2.8205129504203796e-01</leafValues></_>
        <_>
          <internalNodes>
            0 -1 10 6.7386165028437972e-05</internalNodes>
          <leafValues>
            5.2433997392654419e-01 -8.1968349218368530e-01</leafValues></_></weakClassifiers></_>
    <!-- stage 19 -->
    <_>
      <maxWeakCount>2</maxWeakCount>
      <stageThreshold>-5.1089996099472046e-01</stageThreshold>
      <weakClassifiers>
        <_>
          <internalNodes>
            0 -1 5 -5.6343387768720277e-06</internalNodes>
          <leafValues>
            -9.3181818723678589e-01 3.0232557654380798e-01</leafValues></_>
        <_>
          <internalNodes>
            0 -1 0 2.6892316527664661e-03</internalNodes>
          <leafValues>
            7.3432219028472900e-01 -8.1322556734085083e-01</leafValues></_></weakClassifiers></_></stages>
  <features>
    <_>
      <rects>
        <_>
          0 10 50 16 -1.</_>
        <_>
          0 10 25 8 2.</_>
        <_>
          25 18 25 8 2.</_></rects>
      <tilted>0</tilted></_>
    <_>
      <rects>
        <_>
          0 18 7 3 -1.</_>
        <_>
          0 19 7 1 3.</_></rects>
      <tilted>0</tilted></_>
    <_>
      <rects>
        <_>
          0 48 50 1 -1.</_>
        <_>
          25 48 25 1 2.</_></rects>
      <tilted>0</tilted></_>
    <_>
      <rects>
        <_>
          1 0 6 47 -1.</_>
        <_>
          3 0 2 47 3.</_></rects>
      <tilted>0</tilted></_>
    <_>
      <rects>
        <_>
          1 16 30 12 -1.</_>
        <_>
          11 20 10 4 9.</_></rects>
      <tilted>0</tilted></_>
    <_>
      <rects>
        <_>
          2 39 2 8 -1.</_>
        <_>
          2 39 1 4 2.</_>
        <_>
          3 43 1 4 2.</_></rects>
      <tilted>0</tilted></_>
    <_>
      <rects>
        <_>
          5 0 24 39 -1.</_>
        <_>
          13 0 8 39 3.</_></rects>
      <tilted>0</tilted></_>
    <_>
      <rects>
        <_>
          5 30 4 3 -1.</_>
        <_>
          5 30 2 3 2.</_></rects>
      <tilted>1</tilted></_>
    <_>
      <rects>
        <_>
          5 32 1 8 -1.</_>
        <_>
          5 34 1 4 2.</_></rects>
      <tilted>0</tilted></_>
    <_>
      <rects>
        <_>
          6 25 2 4 -1.</_>
        <_>
          6 27 2 2 2.</_></rects>
      <tilted>0</tilted></_>
    <_>
      <rects>
        <_>
          6 31 4 6 -1.</_>
        <_>
          4 33 4 2 3.</_></rects>
      <tilted>1</tilted></_>
    <_>
      <rects>
        <_>
          7 30 10 4 -1.</_>
        <_>
          6 31 10 2 2.</_></rects>
      <tilted>1</tilted></_>
    <_>
      <rects>
        <_>
          7 30 14 2 -1.</_>
        <_>
          7 31 14 1 2.</_></rects>
      <tilted>0</tilted></_>
    <_>
      <rects>
        <_>
          8 43 8 1 -1.</_>
        <_>
          10 43 4 1 2.</_></rects>
      <tilted>0</tilted></_>
    <_>
      <rects>
        <_>
          9 40 7 8 -1.</_>
        <_>
          9 42 7 4 2.</_></rects>
      <tilted>0</tilted></_>
    <_>
      <rects>
        <_>
          10 39 1 9 -1.</_>
        <_>
          10 42 1 3 3.</_></rects>
      <tilted>0</tilted></_>
    <_>
      <rects>
        <_>
          13 13 6 36 -1.</_>
        <_>
          13 13 3 18 2.</_>
        <_>
          16 31 3 18 2.</_></rects>
      <tilted>0</tilted></_>
    <_>
      <rects>
        <_>
          13 21 11 8 -1.</_>
        <_>
          13 25 11 4 2.</_></rects>
      <tilted>0</tilted></_>
    <_>
      <rects>
        <_>
          14 37 2 3 -1.</_>
        <_>
          14 38 2 1 3.</_></rects>
      <tilted>0</tilted></_>
    <_>
      <rects>
        <_>
          15 17 14 4 -1.</_>
        <_>
          15 18 14 2 2.</_></rects>
      <tilted>0</tilted></_>
    <_>
      <rects>
        <_>
          16 20 10 5 -1.</_>
        <_>
          21 20 5 5 2.</_></rects>
      <tilted>0</tilted></_>
    <_>
      <rects>
        <_>
          16 24 8 8 -1.</_>
        <_>
          16 26 8 4 2.</_></rects>
      <tilted>0</tilted></_>
    <_>
      <rects>
        <_>
          17 39 27 6 -1.</_>
        <_>
          26 39 9 6 3.</_></rects>
      <tilted>0</tilted></_>
    <_>
      <rects>
        <_>
          17 43 6 2 -1.</_>
        <_>
          17 43 3 1 2.</_>
        <_>
          20 44 3 1 2.</_></rects>
      <tilted>0</tilted></_>
    <_>
      <rects>
        <_>
          18 20 8 3 -1.</_>
        <_>
          18 20 4 3 2.</_></rects>
      <tilted>1</tilted></_>
    <_>
      <rects>
        <_>
          19 25 13 6 -1.</_>
        <_>
          19 27 13 2 3.</_></rects>
      <tilted>0</tilted></_>
    <_>
      <rects>
        <_>
          20 19 6 2 -1.</_>
        <_>
          20 19 3 2 2.</_></rects>
      <tilted>1</tilted></_>
    <_>
      <rects>
        <_>
          21 16 6 7 -1.</_>
        <_>
          21 16 3 7 2.</_></rects>
      <tilted>1</tilted></_>
    <_>
      <rects>
        <_>
          21 20 4 10 -1.</_>
        <_>
          21 25 4 5 2.</_></rects>
      <tilted>0</tilted></_>
    <_>
      <rects>
        <_>
          22 16 2 28 -1.</_>
        <_>
          22 30 2 14 2.</_></rects>
      <tilted>0</tilted></_>
    <_>
      <rects>
        <_>
          22 22 7 24 -1.</_>
        <_>
          22 28 7 12 2.</_></rects>
      <tilted>0</tilted></_>
    <_>
      <rects>
        <_>
          22 45 10 3 -1.</_>
        <_>
          22 46 10 1 3.</_></rects>
      <tilted>0</tilted></_>
    <_>
      <rects>
        <_>
          25 20 8 20 -1.</_>
        <_>
          20 25 8 10 2.</_></rects>
      <tilted>1</tilted></_>
    <_>
      <rects>
        <_>
          25 28 20 4 -1.</_>
        <_>
          30 28 10 4 2.</_></rects>
      <tilted>0</tilted></_>
    <_>
      <rects>
        <_>
          29 5 20 44 -1.</_>
        <_>
          34 5 10 44 2.</_></rects>
      <tilted>0</tilted></_>
    <_>
      <rects>
        <_>
          34 34 9 4 -1.</_>
        <_>
          37 34 3 4 3.</_></rects>
      <tilted>0</tilted></_>
    <_>
      <rects>
        <_>
          40 38 10 12 -1.</_>
        <_>
          40 38 5 6 2.</_>
        <_>
          45 44 5 6 2.</_></rects>
      <tilted>0</tilted></_>
    <_>
      <rects>
        <_>
          42 0 3 4 -1.</_>
        <_>
          42 2 3 2 2.</_></rects>
      <tilted>0</tilted></_>
    <_>
      <rects>
        <_>
          43 17 1 6 -1.</_>
        <_>
          43 19 1 2 3.</_></rects>
      <tilted>0</tilted></_>
    <_>
      <rects>
        <_>
          44 36 6 7 -1.</_>
        <_>
          47 36 3 7 2.</_></rects>
      <tilted>0</tilted></_>
    <_>
      <rects>
        <_>
          47 35 3 12 -1.</_>
        <_>
          48 39 1 4 9.</_></rects>
      <tilted>0</tilted></_>
    <_>
      <rects>
        <_>
          49 12 1 34 -1.</_>
        <_>
          49 29 1 17 2.</_></rects>
      <tilted>0</tilted></_></features></cascade>
</opencv_storage>
